digraph Tree {
node [shape=box, style="filled, rounded", color="black", fontname=helvetica] ;
edge [fontname=helvetica] ;
0 [label="dballbut <= 69.125\ngini = 0.499\nsamples = 31\nvalue = [16, 15]\nclass = Defenseur", fillcolor="#e5813910"] ;
1 [label="dbut <= 20.179\ngini = 0.26\nsamples = 13\nvalue = [2, 11]\nclass = Fonceur", fillcolor="#399de5d1"] ;
0 -> 1 [labeldistance=2.5, labelangle=45, headlabel="True"] ;
2 [label="gini = 0.0\nsamples = 6\nvalue = [0, 6]\nclass = Fonceur", fillcolor="#399de5ff"] ;
1 -> 2 ;
3 [label="dbut <= 36.366\ngini = 0.408\nsamples = 7\nvalue = [2, 5]\nclass = Fonceur", fillcolor="#399de599"] ;
1 -> 3 ;
4 [label="dball <= 8.845\ngini = 0.5\nsamples = 4\nvalue = [2, 2]\nclass = Defenseur", fillcolor="#e5813900"] ;
3 -> 4 ;
5 [label="gini = 0.5\nsamples = 2\nvalue = [1, 1]\nclass = Defenseur", fillcolor="#e5813900"] ;
4 -> 5 ;
6 [label="gini = 0.5\nsamples = 2\nvalue = [1, 1]\nclass = Defenseur", fillcolor="#e5813900"] ;
4 -> 6 ;
7 [label="gini = 0.0\nsamples = 3\nvalue = [0, 3]\nclass = Fonceur", fillcolor="#399de5ff"] ;
3 -> 7 ;
8 [label="dbut <= 47.694\ngini = 0.346\nsamples = 18\nvalue = [14, 4]\nclass = Defenseur", fillcolor="#e58139b6"] ;
0 -> 8 [labeldistance=2.5, labelangle=-45, headlabel="False"] ;
9 [label="gini = 0.0\nsamples = 6\nvalue = [6, 0]\nclass = Defenseur", fillcolor="#e58139ff"] ;
8 -> 9 ;
10 [label="dbut <= 56.675\ngini = 0.444\nsamples = 12\nvalue = [8, 4]\nclass = Defenseur", fillcolor="#e581397f"] ;
8 -> 10 ;
11 [label="gini = 0.0\nsamples = 2\nvalue = [0, 2]\nclass = Fonceur", fillcolor="#399de5ff"] ;
10 -> 11 ;
12 [label="dbut <= 74.493\ngini = 0.32\nsamples = 10\nvalue = [8, 2]\nclass = Defenseur", fillcolor="#e58139bf"] ;
10 -> 12 ;
13 [label="gini = 0.0\nsamples = 5\nvalue = [5, 0]\nclass = Defenseur", fillcolor="#e58139ff"] ;
12 -> 13 ;
14 [label="dball <= 15.785\ngini = 0.48\nsamples = 5\nvalue = [3, 2]\nclass = Defenseur", fillcolor="#e5813955"] ;
12 -> 14 ;
15 [label="gini = 0.0\nsamples = 2\nvalue = [2, 0]\nclass = Defenseur", fillcolor="#e58139ff"] ;
14 -> 15 ;
16 [label="gini = 0.444\nsamples = 3\nvalue = [1, 2]\nclass = Fonceur", fillcolor="#399de57f"] ;
14 -> 16 ;
}